{"km_centers": [[0.7773514637017783, 0.44300746067210867, 0.4915166240161461], [0.2873887731002763, 0.42346348812894996, 0.5750568769346682], [0.27649761947698853, 0.5377402041951069, 0.23086096959149432], [0.7129777697675939, 0.8334411609954052, 0.4566590124535254], [0.33103789714791715, 0.17711445817009516, 0.22730530330483334], [0.46670605592515846, 0.14251921405488677, 0.7264152963994036], [0.41901735484827907, 0.8314881973590472, 0.8009406763722647], [0.4473329844048363, 0.8389105516784683, 0.1386136939449966], [0.7777363028088171, 0.6698695949502967, 0.18123151570828314], [0.7311424229088331, 0.3510164527764029, 0.8165831110755533], [0.7243352701790996, 0.13754153670905975, 0.33122638046506775], [0.6308536621850974, 0.3691321124039984, 0.13010347311912787], [0.7373530544882542, 0.7652536494190071, 0.8010366662241154], [0.2935473381934797, 0.8226957808889077, 0.48248221344189895], [0.34771678303574116, 0.4860288200518077, 0.8789196148452962]], "scaler_mean": [1.480948943071119, 0.7456602404272377, 0.9081231309715286, 0.7651557783894567, 0.8442400383700673, 0.8414445374122823, 0.2591522433019082, 0.5088728536923517, 0.8999414080196523, 0.7647099550445446, 0.8860365036005964, 0.8053465096387503, 0.8783957273778839, 0.8350904620809508, 0.6994208595359377, 0.7420526226151543, 0.7655334329943172, 1.037188381696255, 0.966379610337558, 0.2512727262893696, 0.367851877655921, 0.9719867811129063, 0.6781165288470797, 0.839681541558219, 0.8202868650622096, 0.9217022003963931, 1.047730407425216, 0.6700565728456457, 0.6651207153052343, 0.391708990661476, 0.4520310749629916, 0.412111213554453, 0.7583975035336187, 0.2765955267340879, 0.468556416196741, 0.9877183486003475, 0.29715565452539466, 0.7203215330438285, 0.34409153046847096, 0.5677734779712947, 0.4522470860337129, 0.6807055529226375, 0.3691898354738902, 0.5952580400658453, 0.5418614715248926, 0.49860910741203024, 0.6669190122201971, 0.5818407269346263, 1.124102135776274, 0.5186570436751479, 0.753964295307765, 0.4440191636480843, 0.16842668652047596, 0.39858883786983873, 0.5216395027048142, 1.0820900129367004, 0.9709722014838396, 0.3907725993916332, 0.5637659317033343, 0.5162517204691706, 0.8314471433555783, 0.15783975113603613, 0.18528403547965358, 1.0870976646588753, 0.7495232913129853, 0.6241923210662198, 0.8069171072733213, 0.523183432488701, 1.0251917737674998, 0.24824845390271089, 0.2772405287431408, 1.125015798361079, 0.34962875297899043, 0.6393625527538938, 1.4054240926384105, 0.7715864655828486, 1.3333205326989486, 0.45541337203323734, 0.17324899730213794, 0.11608998734004862, 0.290202242195752, 0.21163633893608338, 0.34287288943579913, 0.1838724381755239, 0.18690532395056433, 0.326174009309137, 0.587431030990962, 0.2265332840537569, 0.5038816386140155, 0.1786394174026964, 0.49264785726013, 0.5574036254935351, 1.3720428589538383, 0.5756959231103992, 1.689484751317372, 0.6778156476943902, 0.3382785302396234, 0.44257733341418865, 0.4254660824562873, 0.5631158897669807, 0.6858265696094129, 0.5959794135993541, 0.5870219580321959, 1.3436398209515206, 0.6262633575853002, 0.8849880476816395, 0.8832462874835476, 0.9219636571425367, 0.8595614200578023, 0.9313913478122281, 0.9039249645823202, 0.8353840873252039, 0.9393197919025038, 0.9415136625746198, 0.8617177951447098, 0.9284728202225747, 0.9076600611401772, 0.8529578330685574, 0.8726664575577202, 0.8534831535130468, 0.008555278900185025, 0.009975242726862437, 0.0028300132139536206, 0.0030360037416507987, 0.0036059948397212287, 0.005071433761584028, 0.005392718982433064, 0.0009025521309633159, 0.0012729529723302694, 0.009698743385618122, 0.0025955180041562186, 0.00831262264633799, 0.0058897531192649896, 0.002330023004063888, 0.019525426935287436], "scaler_std": [0.3868926953629988, 0.3299023924807703, 0.28163434091879097, 0.34083708248266403, 0.32378883201329933, 0.36862174708136547, 0.26546877594745627, 0.27555707478751634, 0.42008894603736874, 0.2907927073624012, 0.35002600689814317, 0.35571582353636344, 0.3415648754894758, 0.42289575154838493, 0.34332749779996535, 0.27655640498230183, 0.3375148074666121, 0.31027312270399854, 0.30822238288135717, 0.2796077566648358, 0.2725119672949989, 0.3694395256404669, 0.2981924764496507, 0.3872134553676679, 0.3036212955615877, 0.31943326773013636, 0.4028701629927688, 0.28810673179506985, 0.35110613825963366, 0.36810503257453714, 0.39111201976341897, 0.23129142964679497, 0.26942199410698303, 0.4286132399395231, 0.31750706524015665, 0.3137668878216522, 0.38869896520378755, 0.3108784286520979, 0.39394611955494163, 0.3104642427095829, 0.2989727774039709, 0.3338711023893693, 0.20262923644449288, 0.30294285454136716, 0.3439042957768941, 0.2934640491430811, 0.26327699976153196, 0.35540172394454017, 0.281301579591691, 0.3282075932238256, 0.35377363725087474, 0.3359796663674818, 0.27140165938131083, 0.31402937481962384, 0.414615920921045, 0.3035806558226995, 0.3159060756163111, 0.3903160937278331, 0.31152746332808484, 0.3628906245735081, 0.2912318754918895, 0.2415377356103749, 0.3143491200447463, 0.2929277294506881, 0.33924344921517824, 0.3906339228921122, 0.2816729781795786, 0.29938198846986447, 0.28134710014825487, 0.2379286631697664, 0.3100164960303757, 0.26659415423357646, 0.3280819378422905, 0.3769331537022481, 0.30536318746130126, 0.3334164374978075, 0.26648165891096726, 0.23134162898432362, 0.29644963315885153, 0.23039350125954872, 0.25631919455298735, 0.29948027112956954, 0.2183841187350571, 0.2733063826694844, 0.32076088023019955, 0.2572730250076455, 0.22167754804622644, 0.3147620345512566, 0.29397724035701867, 0.2823134656562659, 0.37333960224820434, 0.44743727191202387, 0.25779109300159436, 0.3665842430910926, 0.340759595932444, 0.3322204255970835, 0.35300213362365157, 0.2852704677493759, 0.346253450683992, 0.4154727074179361, 0.2875958096368693, 0.3931753145560159, 0.3638789948722453, 0.2619432524524871, 0.3383648652351718, 0.07949031488634298, 0.07472326133818746, 0.06300471513096222, 0.0850283779612526, 0.06174425169206369, 0.07038916412846156, 0.0859993857094956, 0.051873213385343286, 0.0625360364715211, 0.09181835383404607, 0.05400999805090359, 0.0757925177186665, 0.0925313898695263, 0.08241892273225433, 0.09100073899252678, 0.00644560719440987, 0.005748879933942924, 0.0020495625924191792, 0.001953231005071665, 0.002428022877812063, 0.0025371286412455363, 0.0033296011145100665, 0.0007206057150538311, 0.0009850857196404448, 0.004616873983468878, 0.0017346193313025604, 0.006203444204380762, 0.0030757433440006562, 0.001372201035413817, 0.009206200975801545], "selected_mask": [true, false, false, false, true, true, false, true, false, false, true, false, false, true, false, false, false, false, false, false, false, false, false, true, true, false, true, false, true, false, false, false, true, false, false, true, false, false, false, false, false, false, false, true, true, false, false, false, false, false, true, false, false, false, true, false, false, true, false, true, false, false, false, false, false, true, false, false, false, false, false, false, false, true, false, false, false, false, false, false, false, false, false, false, false, false, true, false, false, false, false, true, false, true, false, false, false, false, false, true, false, true, false, false, false, false, false, true, false, false, false, false, false, false, true, false, true, true, false, true, true, false, true, true, false, false, true, false, true, true, false, true, true, true, true], "n_estimators": 100, "learning_rate": 0.05, "init_pred": 0.627906976744186, "classes": [0, 1], "trees": [{"children_left": [1, 2, -1, -1, 5, -1, -1], "children_right": [4, 3, -1, -1, 6, -1, -1], "feature": [10, 0, -2, -2, 28, -2, -2], "threshold": [0.5846161842346191, -0.5972797274589539, -2.0, -2.0, 0.4397607296705246, -2.0, -2.0], "value": [[[-1.0327656043024712e-17]], [[-0.1796311146752206]], [[1.5925925925925928]], [[-1.5202020202020194]], [[0.37209302325581384]], [[1.5925925925925926]], [[1.5925925925925926]]]}, {"children_left": [1, 2, -1, -1, -1], "children_right": [4, 3, -1, -1, -1], "feature": [10, 27, -2, -2, -2], "threshold": [0.5846161842346191, 0.1414983719587326, -2.0, -2.0, -2.0], "value": [[[0.00018105628873386483]], [[-0.17047630041370304]], [[-2.2337173056833723]], [[0.3540953440526095]], [[1.5472345509045553]]]}, {"children_left": [1, 2, -1, -1, -1], "children_right": [4, 3, -1, -1, -1], "feature": [10, 25, -2, -2, -2], "threshold": [0.5846161842346191, 0.1895178183913231, -2.0, -2.0, -2.0], "value": [[[0.0003293714676279178]], [[-0.1618188598202062]], [[-2.1315744511130545]], [[0.3655347997469483]], [[1.5064956716487925]]]}, {"children_left": [1, 2, -1, -1, 5, -1, -1], "children_right": [4, 3, -1, -1, 6, -1, -1], "feature": [24, 28, -2, -2, 31, -2, -2], "threshold": [-0.37942706048488617, 1.4916774034500122, -2.0, -2.0, -0.3784303218126297, -2.0, -2.0], "value": [[[0.00045283712949947884]], [[0.2772059847597632]], [[1.5017444763522276]], [[-2.6212858191516712]], [[-0.1805011440133652]], [[-2.3647500088503635]], [[0.4730689145312926]]]}, {"children_left": [1, 2, -1, -1, 5, -1, -1], "children_right": [4, 3, -1, -1, 6, -1, -1], "feature": [10, 4, -2, -2, 15, -2, -2], "threshold": [0.5846161842346191, -0.8170715570449829, -2.0, -2.0, 0.13233613967895508, -2.0, -2.0], "value": [[[0.0005840731719527481]], [[-0.14754804688438625]], [[1.516311209508139]], [[-1.245480033519947]], [[0.3074291790029408]], [[1.4357652890984085]], [[1.45876474875825]]]}, {"children_left": [1, 2, -1, -1, 5, -1, -1], "children_right": [4, 3, -1, -1, 6, -1, -1], "feature": [24, 29, -2, -2, 31, -2, -2], "threshold": [-0.37942706048488617, 1.5341843962669373, -2.0, -2.0, -0.3784303218126297, -2.0, -2.0], "value": [[[0.0006934557683324291]], [[0.2514861951141199]], [[1.4370766574858274]], [[-2.3362688064530066]], [[-0.16328641226545168]], [[-2.139725335594028]], [[0.46514430129336776]]]}, {"children_left": [1, 2, -1, -1, 5, -1, -1], "children_right": [4, 3, -1, -1, 6, -1, -1], "feature": [10, 25, -2, -2, 15, -2, -2], "threshold": [0.5846161842346191, 0.1895178183913231, -2.0, -2.0, 0.13233613967895508, -2.0, -2.0], "value": [[[0.0007668091370564141]], [[-0.13461733866748907]], [[-1.7894254461404593]], [[0.36358247999700866]], [[0.28120540101790065]], [[1.3774588942338615]], [[1.416689815060873]]]}, {"children_left": [1, 2, -1, -1, 5, -1, -1], "children_right": [4, 3, -1, -1, 6, -1, -1], "feature": [24, 28, -2, -2, 31, -2, -2], "threshold": [-0.37942706048488617, 1.4916774034500122, -2.0, -2.0, -0.3784303218126297, -2.0, -2.0], "value": [[[0.0008130696263272042]], [[0.23014117041090273]], [[1.3900483620023718]], [[-2.2107584010442403]], [[-0.14913222704051046]], [[-1.977171616027571]], [[0.45253082348152524]]]}, {"children_left": [1, 2, -1, -1, 5, -1, -1], "children_right": [4, 3, -1, -1, 6, -1, -1], "feature": [10, 27, -2, -2, 15, -2, -2], "threshold": [0.5846161842346191, 0.1414983719587326, -2.0, -2.0, 0.13233613967895508, -2.0, -2.0], "value": [[[0.0008509775921776243]], [[-0.12294122518946601]], [[-1.696403046264965]], [[0.37492765166833014]], [[0.25727768335415374]], [[1.3286805513410043]], [[1.3795100445371622]]]}, {"children_left": [1, 2, -1, -1, 5, -1, -1], "children_right": [4, 3, -1, -1, 6, -1, -1], "feature": [24, 29, -2, -2, 39, -2, -2], "threshold": [-0.37942706048488617, 1.5341843962669373, -2.0, -2.0, 0.45605291426181793, -2.0, -2.0], "value": [[[0.0008773186023421493]], [[0.21055672779570966]], [[1.3497362775947785]], [[-2.1045692097420265]], [[-0.13622075663947517]], [[-1.3841574935906606]], [[1.1060556123521221]]]}, {"children_left": [1, 2, -1, -1, 5, -1, -1], "children_right": [4, 3, -1, -1, 6, -1, -1], "feature": [10, 25, -2, -2, 16, -2, -2], "threshold": [0.5846161842346191, 0.1895178183913231, -2.0, -2.0, 0.34430573135614395, -2.0, -2.0], "value": [[[0.0009341354933482718]], [[-0.11202424322792591]], [[-1.575050152059468]], [[0.3693999232172307]], [[0.234919348558845]], [[1.2874835005084877]], [[1.3444733767419343]]]}, {"children_left": [1, 2, -1, -1, 5, -1, -1], "children_right": [4, 3, -1, -1, 6, -1, -1], "feature": [24, 28, -2, -2, 31, -2, -2], "threshold": [-0.37942706048488617, 1.4916774034500122, -2.0, -2.0, -0.3784303218126297, -2.0, -2.0], "value": [[[0.000942058758860667]], [[0.19266019374191512]], [[1.3150327994508648]], [[-2.012777887561479]], [[-0.1244121064223672]], [[-1.7606954727832627]], [[0.4492953911745336]]]}, {"children_left": [1, 2, -1, -1, 5, -1, -1], "children_right": [4, 3, -1, -1, 6, -1, -1], "feature": [10, 27, -2, -2, 15, -2, -2], "threshold": [0.5846161842346191, 0.1414983719587326, -2.0, -2.0, 0.13233613967895508, -2.0, -2.0], "value": [[[0.0009382454771157116]], [[-0.10238911141282195]], [[-1.4938438251939234]], [[0.3659013210719107]], [[0.21497348474912936]], [[1.252406189779493]], [[1.3149516039837414]]]}, {"children_left": [1, 2, -1, -1, 5, -1, -1], "children_right": [4, 3, -1, -1, 6, -1, -1], "feature": [24, 28, -2, -2, 39, -2, -2], "threshold": [-0.37942706048488617, 1.4916774034500122, -2.0, -2.0, 0.3721346855163574, -2.0, -2.0], "value": [[[0.0009349928749707665]], [[0.17629399007079002]], [[1.28492022382279]], [[-1.9327231164331775]], [[-0.11372281298383416]], [[-1.3628416614924146]], [[0.8078087136014714]]]}, {"children_left": [1, 2, -1, -1, 5, -1, -1], "children_right": [4, 3, -1, -1, 6, -1, -1], "feature": [10, 25, -2, -2, 15, -2, -2], "threshold": [0.5846161842346191, 0.1895178183913231, -2.0, -2.0, 0.13233613967895508, -2.0, -2.0], "value": [[[0.0009513516141163646]], [[-0.09373477887300989]], [[-1.4264492496614334]], [[0.37466857517518054]], [[0.1970869076231637]], [[1.2223323497615841]], [[1.2914876470576442]]]}, {"children_left": [1, 2, -1, -1, 5, -1, -1], "children_right": [4, 3, -1, -1, 6, -1, -1], "feature": [0, 21, -2, -2, 33, -2, -2], "threshold": [-0.5972797274589539, 0.07251887768507004, -2.0, -2.0, -0.3830011934041977, -2.0, -2.0], "value": [[[0.0009402692470755668]], [[0.22512401354766373]], [[1.2700400553087192]], [[1.6467429053381135]], [[-0.07612289285625166]], [[-1.7015045649711604]], [[0.37240887415674007]]]}, {"children_left": [1, 2, -1, -1, 5, -1, -1], "children_right": [4, 3, -1, -1, 6, -1, -1], "feature": [10, 27, -2, -2, 15, -2, -2], "threshold": [0.5846161842346191, 0.1414983719587326, -2.0, -2.0, 0.13233613967895508, -2.0, -2.0], "value": [[[0.0009065149870863136]], [[-0.08691424542718809]], [[-1.366325331484123]], [[0.3675121549880186]], [[0.18282094727379744]], [[1.2013544372916352]], [[1.268297131069695]]]}, {"children_left": [1, 2, -1, -1, 5, -1, -1], "children_right": [4, 3, -1, -1, 6, -1, -1], "feature": [0, 0, -2, -2, 33, -2, -2], "threshold": [-0.5972797274589539, -0.638406902551651, -2.0, -2.0, -0.3830011934041977, -2.0, -2.0], "value": [[[0.0008912599813061303]], [[0.2108721163048184]], [[1.2468867924676676]], [[1.6377382754428644]], [[-0.07128965937990119]], [[-1.6349204886017275]], [[0.357903378751473]]]}, {"children_left": [1, 2, -1, -1, 5, -1, -1], "children_right": [4, 3, -1, -1, 6, -1, -1], "feature": [11, 24, -2, -2, 31, -2, -2], "threshold": [0.7350362539291382, -0.37942706048488617, -2.0, -2.0, -0.06236271560192108, -2.0, -2.0], "value": [[[0.0008530166708809874]], [[-0.060243715634599314]], [[0.9109347187476579]], [[-0.9558961295315027]], [[0.2316628942693617]], [[1.5988496780881554]], [[1.2414907252433043]]]}, {"children_left": [1, 2, -1, -1, 5, -1, -1], "children_right": [4, 3, -1, -1, 6, -1, -1], "feature": [38, 6, -2, -2, 31, -2, -2], "threshold": [0.12160389497876167, -0.6824727058410645, -2.0, -2.0, -0.3202918469905853, -2.0, -2.0], "value": [[[0.0008628175427000363]], [[-0.09295513596073265]], [[1.2948787036653528]], [[-1.1504067843080905]], [[0.14434909937147933]], [[-0.8907118991140469]], [[1.3188536727232614]]]}, {"children_left": [1, 2, -1, -1, 5, -1, -1], "children_right": [4, 3, -1, -1, 6, -1, -1], "feature": [0, 3, -2, -2, 38, -2, -2], "threshold": [-0.5972797274589539, 1.449535071849823, -2.0, -2.0, 0.12160389497876167, -2.0, -2.0], "value": [[[0.0008944609470205318]], [[0.19029471719429286]], [[1.2169721158165692]], [[1.577721506631288]], [[-0.06421187713797931]], [[-1.1079084563838952]], [[0.7823534811700052]]]}, {"children_left": [1, 2, -1, -1, 5, -1, -1], "children_right": [4, 3, -1, -1, 6, -1, -1], "feature": [11, 24, -2, -2, 31, -2, -2], "threshold": [0.7350362539291382, -0.37942706048488617, -2.0, -2.0, -0.06236271560192108, -2.0, -2.0], "value": [[[0.0008858302365801026]], [[-0.05413993120857225]], [[0.8753338588154989]], [[-0.8904783717934148]], [[0.2087609290293778]], [[1.5809068897583916]], [[1.2037980890628373]]]}, {"children_left": [1, 2, -1, -1, 5, -1, -1], "children_right": [4, 3, -1, -1, 6, -1, -1], "feature": [0, 3, -2, -2, 33, -2, -2], "threshold": [-0.5972797274589539, 1.449535071849823, -2.0, -2.0, -0.3830011934041977, -2.0, -2.0], "value": [[[0.0008870287149470153]], [[0.17632065894328117]], [[1.1953239160943523]], [[1.558206950904474]], [[-0.05941828167604283]], [[-1.5008055651733534]], [[0.3374881309640251]]]}, {"children_left": [1, 2, -1, -1, 5, -1, -1], "children_right": [4, 3, -1, -1, 6, -1, -1], "feature": [38, 6, -2, -2, 31, -2, -2], "threshold": [0.12160389497876167, -0.6824727058410645, -2.0, -2.0, -0.3202918469905853, -2.0, -2.0], "value": [[[0.0008381302658999806]], [[-0.0809370065683678]], [[1.2511283236082535]], [[-1.0586994207176041]], [[0.1259059866006625]], [[-0.8928968876610777]], [[1.2853590752907924]]]}, {"children_left": [1, 2, -1, -1, 5, -1, -1], "children_right": [4, 3, -1, -1, 6, -1, -1], "feature": [39, 24, -2, -2, 4, -2, -2], "threshold": [0.45605291426181793, -0.37942706048488617, -2.0, -2.0, 1.4138657450675964, -2.0, -2.0], "value": [[[0.0008606443209307427]], [[-0.05618267188477235]], [[0.8386173237268727]], [[-0.9813229486979151]], [[0.16680483691933976]], [[1.3389103860746454]], [[-1.4396049731538627]]]}, {"children_left": [1, 2, -1, -1, 5, -1, -1], "children_right": [4, 3, -1, -1, 6, -1, -1], "feature": [38, 6, -2, -2, 31, -2, -2], "threshold": [0.12160389497876167, -0.6824727058410645, -2.0, -2.0, -0.3202918469905853, -2.0, -2.0], "value": [[[0.0008551168625454312]], [[-0.07454691556346092]], [[1.237127365943652]], [[-1.009452912152439]], [[0.11617587233761406]], [[-0.839507738189771]], [[1.2620407993197211]]]}, {"children_left": [1, 2, -1, -1, 5, -1, -1], "children_right": [4, 3, -1, -1, 6, -1, -1], "feature": [0, 21, -2, -2, 39, -2, -2], "threshold": [-0.5972797274589539, 0.07251887768507004, -2.0, -2.0, 0.037035423796623945, -2.0, -2.0], "value": [[[0.0008722290483020957]], [[0.15590021659357575]], [[1.1731149075745737]], [[1.4788908920996864]], [[-0.05241864167038574]], [[-1.219027070890649]], [[0.5067978050554145]]]}, {"children_left": [1, 2, -1, -1, 5, -1, -1], "children_right": [4, 3, -1, -1, 6, -1, -1], "feature": [11, 24, -2, -2, 0, -2, -2], "threshold": [0.7350362539291382, -0.37942706048488617, -2.0, -2.0, 1.4853910207748413, -2.0, -2.0], "value": [[[0.0008363299471514348]], [[-0.04453938835465137]], [[0.811767350271853]], [[-0.793703095069847]], [[0.17225571019840646]], [[1.1782975944402996]], [[1.6784150799817408]]]}, {"children_left": [1, 2, -1, -1, 5, -1, -1], "children_right": [4, 3, -1, -1, 6, -1, -1], "feature": [38, 0, -2, -2, 31, -2, -2], "threshold": [0.12160389497876167, -0.5972797274589539, -2.0, -2.0, -0.3202918469905853, -2.0, -2.0], "value": [[[0.0008294344974115974]], [[-0.0691638820311822]], [[1.215346645134758]], [[-0.9741565941059174]], [[0.1078780362470256]], [[-0.7847647428736428]], [[1.2446623890560422]]]}, {"children_left": [1, 2, -1, -1, 5, -1, -1], "children_right": [4, 3, -1, -1, 6, -1, -1], "feature": [39, 24, -2, -2, 25, -2, -2], "threshold": [0.45605291426181793, -0.37942706048488617, -2.0, -2.0, -1.360620528459549, -2.0, -2.0], "value": [[[0.0008421192143381148]], [[-0.0475689905817524]], [[0.7817015070390319]], [[-0.8947975368158076]], [[0.14167443862114687]], [[-1.3651727564316336]], [[1.2970453877801194]]]}, {"children_left": [1, 2, -1, -1, 5, -1, -1], "children_right": [4, 3, -1, -1, 6, -1, -1], "feature": [38, 6, -2, -2, 31, -2, -2], "threshold": [0.12160389497876167, -0.6824727058410645, -2.0, -2.0, -0.3202918469905853, -2.0, -2.0], "value": [[[0.0008298007671643366]], [[-0.06380597968765159]], [[1.2076100095733593]], [[-0.9390479179004696]], [[0.09968452381570636]], [[-0.7411776301763167]], [[1.2266752441172326]]]}, {"children_left": [1, 2, -1, -1, 5, -1, -1], "children_right": [4, 3, -1, -1, 6, -1, -1], "feature": [0, 24, -2, -2, 33, -2, -2], "threshold": [-0.5972797274589539, -0.5095957815647125, -2.0, -2.0, -0.3830011934041977, -2.0, -2.0], "value": [[[0.0008390069384758281]], [[0.1327015258205907]], [[1.1139857529946802]], [[1.3073993953411631]], [[-0.04448873392725114]], [[-1.3441875651728794]], [[0.29604798622868006]]]}, {"children_left": [1, 2, -1, -1, 5, -1, -1], "children_right": [4, 3, -1, -1, 6, -1, -1], "feature": [11, 0, -2, -2, 31, -2, -2], "threshold": [0.7350362539291382, -0.5972797274589539, -2.0, -2.0, -0.3381696492433548, -2.0, -2.0], "value": [[[0.000786018020359082]], [[-0.03771728485373619]], [[1.1890479818595945]], [[-0.6448328192794682]], [[0.1462429399891635]], [[1.6338701456535574]], [[1.1411682652876916]]]}, {"children_left": [1, 2, -1, -1, 5, -1, -1], "children_right": [4, 3, -1, -1, 6, -1, -1], "feature": [38, 6, -2, -2, 31, -2, -2], "threshold": [0.12160389497876167, -0.6824727058410645, -2.0, -2.0, -0.3202918469905853, -2.0, -2.0], "value": [[[0.0007954826904353456]], [[-0.05917541093607982]], [[1.1818616936900985]], [[-0.9013090111817671]], [[0.0925156729427526]], [[-0.7284678924145798]], [[1.2146856330478122]]]}, {"children_left": [1, 2, -1, -1, 5, -1, -1], "children_right": [4, 3, -1, -1, 6, -1, -1], "feature": [26, 20, -2, -2, 33, -2, -2], "threshold": [-0.35947586596012115, 0.48872002959251404, -2.0, -2.0, -0.4139484167098999, -2.0, -2.0], "value": [[[0.0008022784429845017]], [[-0.10220947197888319]], [[-1.1982071831647851]], [[1.2201410525738081]], [[0.05053208899147233]], [[-0.4999703358567058]], [[0.9870727345577626]]]}, {"children_left": [1, 2, -1, -1, 5, -1, -1], "children_right": [4, 3, -1, -1, 6, -1, -1], "feature": [27, 20, -2, -2, 33, -2, -2], "threshold": [-0.07398894242942333, 0.8099347651004791, -2.0, -2.0, -0.3830011934041977, -2.0, -2.0], "value": [[[0.00077591307270479]], [[-0.08420727417297875]], [[-1.309799891184935]], [[1.168640878264064]], [[0.05634184319488253]], [[-0.4688902320492145]], [[1.258152062035962]]]}, {"children_left": [1, 2, -1, -1, 5, -1, -1], "children_right": [4, 3, -1, -1, 6, -1, -1], "feature": [0, 11, -2, -2, 39, -2, -2], "threshold": [-0.5972797274589539, -0.9276682436466217, -2.0, -2.0, 0.037035423796623945, -2.0, -2.0], "value": [[[0.0007599278256745153]], [[0.11480314129280104]], [[1.2448406231866218]], [[1.1005357551292811]], [[-0.03844242680365027]], [[-1.099551776774755]], [[0.444431532858966]]]}, {"children_left": [1, 2, -1, -1, 5, -1, -1], "children_right": [4, 3, -1, -1, 6, -1, -1], "feature": [38, 0, -2, -2, 31, -2, -2], "threshold": [0.12160389497876167, -0.5972797274589539, -2.0, -2.0, -0.3202918469905853, -2.0, -2.0], "value": [[[0.0007226836335372651]], [[-0.05138049421124458]], [[1.1517708572709076]], [[-0.8596822319793366]], [[0.08040989680790941]], [[-0.6206587501944663]], [[1.18006793743503]]]}, {"children_left": [1, 2, -1, -1, 5, -1, -1], "children_right": [4, 3, -1, -1, 6, -1, -1], "feature": [26, 3, -2, -2, 25, -2, -2], "threshold": [-0.35947586596012115, 0.5850948989391327, -2.0, -2.0, -1.2655271887779236, -2.0, -2.0], "value": [[[0.0007278446866659684]], [[-0.08953720544602121]], [[-1.149547016651154]], [[1.1770098066053023]], [[0.044304075785204663]], [[-1.367637056356847]], [[0.5919235112944277]]]}, {"children_left": [1, 2, -1, -1, 5, -1, -1], "children_right": [4, 3, -1, -1, 6, -1, -1], "feature": [39, 5, -2, -2, 21, -2, -2], "threshold": [0.45605291426181793, -0.3566509932279587, -2.0, -2.0, 1.4983691573143005, -2.0, -2.0], "value": [[[0.0006751718883112491]], [[-0.03508374563445536]], [[0.7595879270818473]], [[-0.8270310508591845]], [[0.10470111377272322]], [[1.2330786383608108]], [[-1.2493891633617016]]]}, {"children_left": [1, 2, -1, -1, 5, -1, -1], "children_right": [4, 3, -1, -1, 6, -1, -1], "feature": [38, 0, -2, -2, 32, -2, -2], "threshold": [0.12160389497876167, -0.5972797274589539, -2.0, -2.0, -0.20328595489263535, -2.0, -2.0], "value": [[[0.0006627369712566452]], [[-0.046712424217767154]], [[1.1340966383704338]], [[-0.8228168600332891]], [[0.07311886584858718]], [[-1.3023508581904386]], [[0.934304205734488]]]}, {"children_left": [1, 2, -1, -1, 5, -1, -1], "children_right": [4, 3, -1, -1, 6, -1, -1], "feature": [27, 20, -2, -2, 33, -2, -2], "threshold": [-0.07398894242942333, 0.8099347651004791, -2.0, -2.0, -0.3830011934041977, -2.0, -2.0], "value": [[[0.0006506648490937499]], [[-0.07005898216161655]], [[-1.2402241900165172]], [[1.1276027604887984]], [[0.04688389558686586]], [[-0.4579694671332816]], [[1.223375024585805]]]}, {"children_left": [1, 2, -1, -1, 5, -1, -1], "children_right": [4, 3, -1, -1, 6, -1, -1], "feature": [0, 11, -2, -2, 33, -2, -2], "threshold": [-0.5972797274589539, -0.9276682436466217, -2.0, -2.0, -0.3830011934041977, -2.0, -2.0], "value": [[[0.0006362874341430409]], [[0.09418506553558813]], [[1.187641511701268]], [[1.0829875692940532]], [[-0.03152110503822872]], [[-1.2347912561294012]], [[0.2833630840075478]]]}, {"children_left": [1, 2, -1, -1, 5, -1, -1], "children_right": [4, 3, -1, -1, 6, -1, -1], "feature": [27, 20, -2, -2, 33, -2, -2], "threshold": [-0.07398894242942333, 0.8099347651004791, -2.0, -2.0, -0.3830011934041977, -2.0, -2.0], "value": [[[0.0005929914674191435]], [[-0.06679960307993718]], [[-1.2265239046738412]], [[1.1158470320046883]], [[0.04465738020992134]], [[-0.43233650849730415]], [[1.2089033824092386]]]}, {"children_left": [1, 2, -1, -1, 5, -1, -1], "children_right": [4, 3, -1, -1, 6, -1, -1], "feature": [27, 20, -2, -2, 35, -2, -2], "threshold": [-0.07398894242942333, 0.8099347651004791, -2.0, -2.0, -0.8779253363609314, -2.0, -2.0], "value": [[[0.0005799512830722844]], [[-0.06352021007866665]], [[-1.213457208093211]], [[1.1099065677938116]], [[0.042491595250363126]], [[-0.9811823589201484]], [[0.8254506314353243]]]}, {"children_left": [1, 2, -1, -1, 5, -1, -1], "children_right": [4, 3, -1, -1, 6, -1, -1], "feature": [0, 11, -2, -2, 33, -2, -2], "threshold": [-0.5972797274589539, -0.9276682436466217, -2.0, -2.0, -0.3830011934041977, -2.0, -2.0], "value": [[[0.000541220427288825]], [[0.08558732107776086]], [[1.163618889579542]], [[1.077530046584001]], [[-0.028693376671310947]], [[-1.2112871724624705]], [[0.2715996826919025]]]}, {"children_left": [1, 2, -1, -1, 5, -1, -1], "children_right": [4, 3, -1, -1, 6, -1, -1], "feature": [26, 3, -2, -2, 33, -2, -2], "threshold": [-1.0347042083740234, 0.5850948989391327, -2.0, -2.0, -0.4139484167098999, -2.0, -2.0], "value": [[[0.0005033451422102249]], [[-0.08998283469210287]], [[-1.2144294238849043]], [[1.1266492126673886]], [[0.027923399637456638]], [[-0.5120868999286563]], [[0.9080725102896473]]]}, {"children_left": [1, 2, -1, -1, 5, -1, -1], "children_right": [4, 3, -1, -1, 6, -1, -1], "feature": [27, 20, -2, -2, 33, -2, -2], "threshold": [-0.07398894242942333, 0.8099347651004791, -2.0, -2.0, -0.3830011934041977, -2.0, -2.0], "value": [[[0.0004813744754622363]], [[-0.05923433058636799]], [[-1.1976456567077272]], [[1.0949601644681435]], [[0.039526258554351226]], [[-0.3889066355553335]], [[1.1811379723010809]]]}, {"children_left": [1, 2, -1, -1, 5, -1, -1], "children_right": [4, 3, -1, -1, 6, -1, -1], "feature": [0, 11, -2, -2, 33, -2, -2], "threshold": [-0.5972797274589539, -1.0474997460842133, -2.0, -2.0, -0.3830011934041977, -2.0, -2.0], "value": [[[0.0004713527696526263]], [[0.07969574738388814]], [[1.1634489077378638]], [[1.0794495061558718]], [[-0.026762032878990833]], [[-1.1884893653060218]], [[0.25005834637039015]]]}, {"children_left": [1, 2, -1, -1, 5, -1, -1], "children_right": [4, 3, -1, -1, 6, -1, -1], "feature": [27, 20, -2, -2, 33, -2, -2], "threshold": [-0.07398894242942333, 0.8099347651004791, -2.0, -2.0, -0.3830011934041977, -2.0, -2.0], "value": [[[0.00043803147263568273]], [[-0.05649987953339517]], [[-1.187547008290865]], [[1.0864342142746988]], [[0.03766666559196356]], [[-0.36775037071197636]], [[1.1699122590056108]]]}, {"children_left": [1, 2, -1, -1, 5, -1, -1], "children_right": [4, 3, -1, -1, 6, -1, -1], "feature": [27, 20, -2, -2, 35, -2, -2], "threshold": [-0.07398894242942333, 0.8099347651004791, -2.0, -2.0, -0.8779253363609314, -2.0, -2.0], "value": [[[0.0004290010333310688]], [[-0.05372944888277624]], [[-1.1771458758461055]], [[1.0820342028553545]], [[0.03584029520924739]], [[-0.9002756700862778]], [[0.7892919742603842]]]}, {"children_left": [1, 2, -1, -1, 5, -1, -1], "children_right": [4, 3, -1, -1, 6, -1, -1], "feature": [0, 12, -2, -2, 33, -2, -2], "threshold": [-0.5972797274589539, 0.3651910722255707, -2.0, -2.0, -0.3830011934041977, -2.0, -2.0], "value": [[[0.0003981125563655795]], [[0.07271386754002712]], [[1.108703272754414]], [[1.0415194396430345]], [[-0.024460428219268075]], [[-1.1719733833181107]], [[0.2411868607359415]]]}, {"children_left": [1, 2, -1, -1, 5, -1, -1], "children_right": [4, 3, -1, -1, 6, -1, -1], "feature": [26, 3, -2, -2, 23, -2, -2], "threshold": [-1.0347042083740234, 0.5850948989391327, -2.0, -2.0, 1.0851450860500336, -2.0, -2.0], "value": [[[0.00036917821326047455]], [[-0.07640958759521783]], [[-1.1761506180189136]], [[1.091809281058228]], [[0.023635470882496318]], [[0.5877785212131539]], [[-1.0042544470903976]]]}, {"children_left": [1, 2, -1, -1, 5, -1, -1], "children_right": [4, 3, -1, -1, 6, -1, -1], "feature": [26, 3, -2, -2, 35, -2, -2], "threshold": [-1.0347042083740234, 0.5850948989391327, -2.0, -2.0, -0.8779253363609314, -2.0, -2.0], "value": [[[0.00033393702866674234]], [[-0.07266559743164183]], [[-1.1662800545491432]], [[1.0870852890591383]], [[0.022455008077245105]], [[-0.8264834723824399]], [[0.6293507984981213]]]}, {"children_left": [1, 2, -1, -1, 5, -1, -1], "children_right": [4, 3, -1, -1, 6, -1, -1], "feature": [27, 20, -2, -2, 33, -2, -2], "threshold": [-0.07398894242942333, 0.8099347651004791, -2.0, -2.0, -0.3830011934041977, -2.0, -2.0], "value": [[[0.00030475680841028543]], [[-0.04791306209716045]], [[-1.1572378384345485]], [[1.068328941651673]], [[0.03183179224666808]], [[-0.360891678905127]], [[1.145582474916355]]]}, {"children_left": [1, 2, -1, -1, 5, -1, -1], "children_right": [4, 3, -1, -1, 6, -1, -1], "feature": [0, 12, -2, -2, 33, -2, -2], "threshold": [-0.5972797274589539, 0.3651910722255707, -2.0, -2.0, -0.3830011934041977, -2.0, -2.0], "value": [[[0.000300682828739651]], [[0.06490561463152708]], [[1.0960973621728873]], [[1.0357543973766483]], [[-0.021907262478468532]], [[-1.1528793922537235]], [[0.24055315385800038]]]}, {"children_left": [1, 2, -1, -1, 5, -1, -1], "children_right": [4, 3, -1, -1, 6, -1, -1], "feature": [27, 20, -2, -2, 35, -2, -2], "threshold": [-0.07398894242942333, 0.8099347651004791, -2.0, -2.0, -0.8779253363609314, -2.0, -2.0], "value": [[[0.0002770852702792282]], [[-0.045725068567983335]], [[-1.1499195868226426]], [[1.0624957931747856]], [[0.030355416626066282]], [[-0.8444515832820808]], [[0.7651857997361392]]]}, {"children_left": [1, 2, -1, -1, 5, -1, -1], "children_right": [4, 3, -1, -1, 6, -1, -1], "feature": [26, 3, -2, -2, 23, -2, -2], "threshold": [-1.0347042083740234, 0.5850948989391327, -2.0, -2.0, 1.0851450860500336, -2.0, -2.0], "value": [[[0.00025445680488618853]], [[-0.06433096021275655]], [[-1.1454237965170786]], [[1.0706878865584883]], [[0.01982579529508097]], [[0.5660931749692965]], [[-0.9821294187360974]]]}, {"children_left": [1, 2, -1, -1, -1], "children_right": [4, 3, -1, -1, -1], "feature": [5, 38, -2, -2, -2], "threshold": [1.9007408022880554, 0.12160389497876167, -2.0, -2.0, -2.0], "value": [[[0.00022646708503853586]], [[-0.00507674310090361]], [[-0.4711769677036414]], [[0.6804960836569088]], [[1.2869371801297447]]]}, {"children_left": [1, 2, -1, -1, 5, -1, -1], "children_right": [4, 3, -1, -1, 6, -1, -1], "feature": [0, 12, -2, -2, 33, -2, -2], "threshold": [-0.5972797274589539, 0.3651910722255707, -2.0, -2.0, -0.3830011934041977, -2.0, -2.0], "value": [[[0.00022416704636315517]], [[0.05877384662800351]], [[1.0857923583430222]], [[1.0318872564402697]], [[-0.0199022853098257]], [[-1.1392140325394198]], [[0.2373134887359468]]]}, {"children_left": [1, 2, -1, -1, 5, -1, -1], "children_right": [4, 3, -1, -1, 6, -1, -1], "feature": [27, 20, -2, -2, 33, -2, -2], "threshold": [-0.07398894242942333, 0.8099347651004791, -2.0, -2.0, -0.3830011934041977, -2.0, -2.0], "value": [[[0.00020492620565344192]], [[-0.04134608651423048]], [[-1.1345538750595454]], [[1.0548147456056]], [[0.02737289606096216]], [[-0.34292066075391675]], [[1.121750577687714]]]}, {"children_left": [1, 2, -1, -1, 5, -1, -1], "children_right": [4, 3, -1, -1, 6, -1, -1], "feature": [0, 12, -2, -2, 33, -2, -2], "threshold": [-0.5972797274589539, 0.3651910722255707, -2.0, -2.0, -0.3830011934041977, -2.0, -2.0], "value": [[[0.00020408055839149896]], [[0.05546839160686746]], [[1.081237419989717]], [[1.0294767243125158]], [[-0.018793026364522118]], [[-1.12947650373071]], [[0.22426897347829083]]]}, {"children_left": [1, 2, -1, -1, 5, -1, -1], "children_right": [4, 3, -1, -1, 6, -1, -1], "feature": [27, 20, -2, -2, 35, -2, -2], "threshold": [-0.07398894242942333, 0.8099347651004791, -2.0, -2.0, -0.8779253363609314, -2.0, -2.0], "value": [[[0.00018645640820082608]], [[-0.039480024198046144]], [[-1.1286204858809894]], [[1.0502349344669166]], [[0.026122232189208467]], [[-0.8020904657426321]], [[0.7485255449654008]]]}, {"children_left": [1, 2, -1, -1, 5, -1, -1], "children_right": [4, 3, -1, -1, 6, -1, -1], "feature": [26, 3, -2, -2, 23, -2, -2], "threshold": [-1.0347042083740234, 0.5850948989391327, -2.0, -2.0, 1.0851450860500336, -2.0, -2.0], "value": [[[0.00016924287244421863]], [[-0.056140867258029005]], [[-1.1246023833093644]], [[1.0558479410844626]], [[0.01723291260895126]], [[0.5555735644480347]], [[-0.9496827701509679]]]}, {"children_left": [1, 2, -1, -1, 5, -1, -1], "children_right": [4, 3, -1, -1, 6, -1, -1], "feature": [26, 3, -2, -2, 23, -2, -2], "threshold": [-1.0347042083740234, 0.5850948989391327, -2.0, -2.0, 1.0851450860500336, -2.0, -2.0], "value": [[[0.00014723436890083183]], [[-0.05339375293645025]], [[-1.1179037653726853]], [[1.0530251919917726]], [[0.016371775976582993]], [[0.5343546535873211]], [[-0.9288610041751537]]]}, {"children_left": [1, 2, -1, -1, 5, -1, -1], "children_right": [4, 3, -1, -1, 6, -1, -1], "feature": [28, 27, -2, -2, 6, -2, -2], "threshold": [1.4721596240997314, 0.1414983719587326, -2.0, -2.0, -0.35374078899621964, -2.0, -2.0], "value": [[[0.00012666455480963575]], [[0.0065776183117641236]], [[-0.5129422853764419]], [[0.6326676180393683]], [[-0.13211788746275713]], [[-1.210028535444678]], [[-1.0997017860726712]]]}, {"children_left": [1, 2, -1, -1, 5, -1, -1], "children_right": [4, 3, -1, -1, 6, -1, -1], "feature": [0, 12, -2, -2, 33, -2, -2], "threshold": [-0.5972797274589539, 0.3651910722255707, -2.0, -2.0, -0.3830011934041977, -2.0, -2.0], "value": [[[0.00011883041727853199]], [[0.047837242433415944]], [[1.0695397465040997]], [[1.0250217434480065]], [[-0.01628437371326871]], [[-1.1183706738848216]], [[0.2447467648563055]]]}, {"children_left": [1, 2, -1, -1, 5, -1, -1], "children_right": [4, 3, -1, -1, 6, -1, -1], "feature": [26, 3, -2, -2, 35, -2, -2], "threshold": [-1.0347042083740234, 0.5850948989391327, -2.0, -2.0, -0.8779253363609314, -2.0, -2.0], "value": [[[0.00010545138340505233]], [[-0.049917436501407335]], [[-1.109842411789509]], [[1.0490268497833617]], [[0.015263902257590627]], [[-0.7556847267674508]], [[0.5902354924571127]]]}, {"children_left": [1, 2, -1, -1, -1], "children_right": [4, 3, -1, -1, -1], "feature": [5, 25, -2, -2, -2], "threshold": [1.9007408022880554, 0.1895178183913231, -2.0, -2.0, -2.0], "value": [[[9.060927959455234e-05]], [[-0.004050873544458273]], [[-0.6739396650491478]], [[0.39412669331833494]], [[1.2107019581508436]]]}, {"children_left": [1, 2, -1, -1, 5, -1, -1], "children_right": [4, 3, -1, -1, 6, -1, -1], "feature": [38, 6, -2, -2, 32, -2, -2], "threshold": [0.12160389497876167, -0.6824727058410645, -2.0, -2.0, -0.20328595489263535, -2.0, -2.0], "value": [[[8.610850836736963e-05]], [[-0.021198142811793344]], [[1.0551898249333824]], [[-0.7167134422977542]], [[0.03263849288037787]], [[-1.1192036911719698]], [[0.8925844791391143]]]}, {"children_left": [1, 2, -1, -1, -1], "children_right": [4, 3, -1, -1, -1], "feature": [5, 38, -2, -2, -2], "threshold": [1.9007408022880554, 0.12160389497876167, -2.0, -2.0, -2.0], "value": [[[9.210341702076792e-05]], [[-0.003965489181334885]], [[-0.4562257506175998]], [[0.6525999134977731]], [[1.2055614854640697]]]}, {"children_left": [1, 2, -1, -1, 5, -1, -1], "children_right": [4, 3, -1, -1, 6, -1, -1], "feature": [0, 12, -2, -2, 33, -2, -2], "threshold": [-0.5972797274589539, 0.3651910722255707, -2.0, -2.0, -0.3830011934041977, -2.0, -2.0], "value": [[[9.428078080931195e-05]], [[0.04314554255826059]], [[1.061925750858733]], [[1.022458381711143]], [[-0.014704590455189563]], [[-1.101975798524573]], [[0.22307215501886593]]]}, {"children_left": [1, 2, -1, -1, 5, -1, -1], "children_right": [4, 3, -1, -1, 6, -1, -1], "feature": [27, 20, -2, -2, 33, -2, -2], "threshold": [-0.07398894242942333, 0.8099347651004791, -2.0, -2.0, -0.3830011934041977, -2.0, -2.0], "value": [[[8.31100369274791e-05]], [[-0.031025319047827186]], [[-1.1025798884927733]], [[1.038488184813183]], [[0.020423236746190145]], [[-0.33005835949289397]], [[1.0893939657739067]]]}, {"children_left": [1, 2, -1, -1, 5, -1, -1], "children_right": [4, 3, -1, -1, 6, -1, -1], "feature": [27, 20, -2, -2, 35, -2, -2], "threshold": [-0.07398894242942333, 0.8099347651004791, -2.0, -2.0, -0.8779253363609314, -2.0, -2.0], "value": [[[8.592684972083058e-05]], [[-0.029507706546292763]], [[-1.0972814151670098]], [[1.0365616602504648]], [[0.01943561022403741]], [[-0.756623399129333]], [[0.7206806982756768]]]}, {"children_left": [1, 2, -1, -1, 5, -1, -1], "children_right": [4, 3, -1, -1, 6, -1, -1], "feature": [0, 12, -2, -2, 33, -2, -2], "threshold": [-0.5972797274589539, 0.3651910722255707, -2.0, -2.0, -0.3830011934041977, -2.0, -2.0], "value": [[[7.520243968899627e-05]], [[0.039691647840187354]], [[1.057781553519927]], [[1.0200567487737555]], [[-0.013542950666732306]], [[-1.094308939728135]], [[0.21760814287454455]]]}, {"children_left": [1, 2, -1, -1, 5, -1, -1], "children_right": [4, 3, -1, -1, 6, -1, -1], "feature": [26, 3, -2, -2, 23, -2, -2], "threshold": [-1.0347042083740234, 0.5850948989391327, -2.0, -2.0, 1.0851450860500336, -2.0, -2.0], "value": [[[6.555104935654382e-05]], [[-0.041769662811604345]], [[-1.0903056363093548]], [[1.0364191800361637]], [[0.012742888582981048]], [[0.5391180291712081]], [[-0.9102173900629088]]]}, {"children_left": [1, 2, -1, -1, -1], "children_right": [4, 3, -1, -1, -1], "feature": [8, 25, -2, -2, -2], "threshold": [1.7738402485847473, 0.1895178183913231, -2.0, -2.0, -2.0], "value": [[[5.164189764304214e-05]], [[-0.0033776822367081135]], [[-0.6514556747540027]], [[0.37057635848706333]], [[1.1683379329508974]]]}, {"children_left": [1, 2, -1, -1, 5, -1, -1], "children_right": [4, 3, -1, -1, 6, -1, -1], "feature": [26, 3, -2, -2, 23, -2, -2], "threshold": [-1.0347042083740234, 0.5850948989391327, -2.0, -2.0, 1.0851450860500336, -2.0, -2.0], "value": [[[4.914298018369689e-05]], [[-0.03936132540845557]], [[-1.085157954550361]], [[1.034195040137099]], [[0.011991709158559237]], [[0.5171243634793378]], [[-0.8866395373838107]]]}, {"children_left": [1, 2, -1, -1, 5, -1, -1], "children_right": [4, 3, -1, -1, 6, -1, -1], "feature": [28, 27, -2, -2, 1, -2, -2], "threshold": [1.4721596240997314, 0.1414983719587326, -2.0, -2.0, -0.10049062222242355, -2.0, -2.0], "value": [[[3.649861246039163e-05]], [[0.004912037777443687]], [[-0.48972934042197247]], [[0.6147115179533632]], [[-0.09991205426969718]], [[-1.1577941279093407]], [[-1.06784616073585]]]}, {"children_left": [1, 2, -1, -1, 5, -1, -1], "children_right": [4, 3, -1, -1, 6, -1, -1], "feature": [28, 27, -2, -2, 6, -2, -2], "threshold": [1.4721596240997314, 0.1414983719587326, -2.0, -2.0, -0.35374078899621964, -2.0, -2.0], "value": [[[3.324102141099675e-05]], [[0.004670187259105335]], [[-0.4692816977954414]], [[0.5933714110614372]], [[-0.09502415685132289]], [[-1.1489188443978746]], [[-1.0643187050704748]]]}, {"children_left": [1, 2, -1, -1, 5, -1, -1], "children_right": [4, 3, -1, -1, 6, -1, -1], "feature": [11, 24, -2, -2, 34, -2, -2], "threshold": [0.7350362539291382, -0.37942706048488617, -2.0, -2.0, -0.6344828307628632, -2.0, -2.0], "value": [[[3.002754674194304e-05]], [[-0.010387496801299176]], [[0.6226734241655969]], [[-0.6276264665468193]], [[0.0393851195282306]], [[1.1456630683067155]], [[1.032055275385108]]]}, {"children_left": [1, 2, -1, -1, 5, -1, -1], "children_right": [4, 3, -1, -1, 6, -1, -1], "feature": [28, 26, -2, -2, 23, -2, -2], "threshold": [1.4721596240997314, -0.35947586596012115, -2.0, -2.0, -0.6586417257785797, -2.0, -2.0], "value": [[[3.5500380389853983e-05]], [[0.004487967402341354]], [[-0.6065657898111602]], [[0.4803956698652632]], [[-0.09124007356961589]], [[-1.145051553132646]], [[-1.0591013184804101]]]}, {"children_left": [1, 2, -1, -1, 5, -1, -1], "children_right": [4, 3, -1, -1, 6, -1, -1], "feature": [0, 12, -2, -2, 33, -2, -2], "threshold": [-0.5972797274589539, 0.3651910722255707, -2.0, -2.0, -0.3830011934041977, -2.0, -2.0], "value": [[[2.9303008995602776e-05]], [[0.033313116712462246]], [[1.0476256638745065]], [[1.0179207642603492]], [[-0.011412007951571067]], [[-1.0823043272407267]], [[0.23047194905244534]]]}, {"children_left": [1, 2, -1, -1, 5, -1, -1], "children_right": [4, 3, -1, -1, 6, -1, -1], "feature": [38, 6, -2, -2, 32, -2, -2], "threshold": [0.12160389497876167, -0.6824727058410645, -2.0, -2.0, -0.20328595489263535, -2.0, -2.0], "value": [[[2.230201165608522e-05]], [[-0.015455413763249421]], [[1.039791878589867]], [[-0.6932797000513713]], [[0.02369410260857039]], [[-1.0883373980829496]], [[0.8822461583814745]]]}, {"children_left": [1, 2, -1, -1, -1], "children_right": [4, 3, -1, -1, -1], "feature": [8, 38, -2, -2, -2], "threshold": [1.7738402485847473, 0.12160389497876167, -2.0, -2.0, -2.0], "value": [[[2.8849582433353687e-05]], [[-0.0028472976085363614]], [[-0.44164824920347834]], [[0.6364083273596772]], [[1.137432605353516]]]}, {"children_left": [1, 2, -1, -1, 5, -1, -1], "children_right": [4, 3, -1, -1, 6, -1, -1], "feature": [0, 12, -2, -2, 33, -2, -2], "threshold": [-0.5972797274589539, 0.3651910722255707, -2.0, -2.0, -0.3830011934041977, -2.0, -2.0], "value": [[[3.235775108375557e-05]], [[0.031139546387248262]], [[1.044490767551681]], [[1.0164312281202752]], [[-0.010660738342597797]], [[-1.0741651610039604]], [[0.21321652411843864]]]}, {"children_left": [1, 2, -1, -1, 5, -1, -1], "children_right": [4, 3, -1, -1, 6, -1, -1], "feature": [39, 5, -2, -2, 39, -2, -2], "threshold": [0.45605291426181793, 0.5069552361965179, -2.0, -2.0, 0.4952462762594223, -2.0, -2.0], "value": [[[2.5780554426572117e-05]], [[-0.010367624393046653]], [[0.1349358546952168]], [[-1.092025962096036]], [[0.03026114040162141]], [[1.1284578965824235]], [[0.7054073476729616]]]}, {"children_left": [1, 2, -1, -1, 5, -1, -1], "children_right": [4, 3, -1, -1, 6, -1, -1], "feature": [26, 3, -2, -2, 23, -2, -2], "threshold": [-1.0347042083740234, 0.5850948989391327, -2.0, -2.0, 1.0851450860500336, -2.0, -2.0], "value": [[[1.822215181672286e-05]], [[-0.03159498456391818]], [[-1.0684617623353236]], [[1.0312286000304378]], [[0.009597981762645485]], [[0.5141396857681833]], [[-0.8790308720735497]]]}, {"children_left": [1, 2, -1, -1, 5, -1, -1], "children_right": [4, 3, -1, -1, 6, -1, -1], "feature": [28, 27, -2, -2, 32, -2, -2], "threshold": [1.4721596240997314, -0.07398894242942333, -2.0, -2.0, -0.47134144231677055, -2.0, -2.0], "value": [[[8.810014897337486e-06]], [[0.003764878338957737]], [[-0.5557916470343632]], [[0.5313126440025636]], [[-0.07699059062834092]], [[-1.0491158637230489]], [[-1.1200274594757185]]]}, {"children_left": [1, 2, -1, -1, 5, -1, -1], "children_right": [4, 3, -1, -1, 6, -1, -1], "feature": [8, 19, -2, -2, 39, -2, -2], "threshold": [-0.3040792942047119, 1.0113801956176758, -2.0, -2.0, 0.45605291426181793, -2.0, -2.0], "value": [[[5.556160115988528e-06]], [[0.022654559067742528]], [[1.033545939427915]], [[-1.0229623069750344]], [[-0.012127838254683942]], [[-0.6402405145411257]], [[0.778273285082322]]]}, {"children_left": [1, 2, -1, -1, 5, -1, -1], "children_right": [4, 3, -1, -1, 6, -1, -1], "feature": [38, 6, -2, -2, 32, -2, -2], "threshold": [0.12160389497876167, -0.6824727058410645, -2.0, -2.0, -0.20328595489263535, -2.0, -2.0], "value": [[[1.2979692420322318e-05]], [[-0.01319544577359661]], [[1.0335910199662037]], [[-0.6749013903891042]], [[0.02021410099338739]], [[-1.0738031881591792]], [[0.8725110637881263]]]}, {"children_left": [1, 2, -1, -1, -1], "children_right": [4, 3, -1, -1, -1], "feature": [5, 38, -2, -2, -2], "threshold": [1.9007408022880554, 0.12160389497876167, -2.0, -2.0, -2.0], "value": [[[1.8929934173419553e-05]], [[-0.0024292822753235414]], [[-0.4334008052763967]], [[0.6304468099035714]], [[1.114633157115416]]]}, {"children_left": [1, 2, -1, -1, 5, -1, -1], "children_right": [4, 3, -1, -1, 6, -1, -1], "feature": [0, 12, -2, -2, 33, -2, -2], "threshold": [-0.5972797274589539, 0.3651910722255707, -2.0, -2.0, -0.3830011934041977, -2.0, -2.0], "value": [[[2.2217929118235437e-05]], [[0.026951742395368895]], [[1.0385170602994185]], [[1.0139657339890669]], [[-0.009234806106155418]], [[-1.0625308965918716]], [[0.20528640737465675]]]}, {"children_left": [1, 2, -1, -1, 5, -1, -1], "children_right": [4, 3, -1, -1, 6, -1, -1], "feature": [26, 20, -2, -2, 23, -2, -2], "threshold": [-1.0347042083740234, 0.48872002959251404, -2.0, -2.0, 1.0851450860500336, -2.0, -2.0], "value": [[[1.6855300627024296e-05]], [[-0.027592414187562263]], [[-1.0593796469509862]], [[1.0267859000875563]], [[0.008383300600078327]], [[0.5079992026765713]], [[-0.8644465149610421]]]}, {"children_left": [1, 2, -1, -1, 5, -1, -1], "children_right": [4, 3, -1, -1, 6, -1, -1], "feature": [11, 0, -2, -2, 0, -2, -2], "threshold": [0.7350362539291382, 0.8800255656242371, -2.0, -2.0, 1.4853910207748413, -2.0, -2.0], "value": [[[8.47368479845821e-06]], [[-0.007571072871097358]], [[0.04533561860588087]], [[-1.0724724596903465]], [[0.028642316229293783]], [[1.023573383740377]], [[1.1046206711642585]]]}, {"children_left": [1, 2, -1, -1, 5, -1, -1], "children_right": [4, 3, -1, -1, 6, -1, -1], "feature": [28, 27, -2, -2, 20, -2, -2], "threshold": [1.4721596240997314, -0.07398894242942333, -2.0, -2.0, -0.9197217263281345, -2.0, -2.0], "value": [[[7.002646501162498e-06]], [[0.003227135022759101]], [[-0.5456905011018003]], [[0.5203463587193173]], [[-0.06600571106678665]], [[-1.041630760963046]], [[-1.1013755799562588]]]}, {"children_left": [1, 2, -1, -1, 5, -1, -1], "children_right": [4, 3, -1, -1, 6, -1, -1], "feature": [0, 12, -2, -2, 39, -2, -2], "threshold": [-0.5972797274589539, 0.3651910722255707, -2.0, -2.0, 0.037035423796623945, -2.0, -2.0], "value": [[[4.104440491444928e-06]], [[0.024382585418228717]], [[1.0347877377276815]], [[1.012540612596228]], [[-0.008375998395605742]], [[-0.9104896145407422]], [[0.34561919203209274]]]}, {"children_left": [1, 2, -1, -1, 5, -1, -1], "children_right": [4, 3, -1, -1, 6, -1, -1], "feature": [38, 0, -2, -2, 32, -2, -2], "threshold": [0.12160389497876167, -0.5972797274589539, -2.0, -2.0, -0.20328595489263535, -2.0, -2.0], "value": [[[2.192071879685203e-06]], [[-0.01125030170089988]], [[1.0287636519658105]], [[-0.6595990987662262]], [[0.017211888430248436]], [[-1.0644562838934604]], [[0.8654148707179471]]]}, {"children_left": [1, 2, -1, -1, -1], "children_right": [4, 3, -1, -1, -1], "feature": [5, 38, -2, -2, -2], "threshold": [1.9007408022880554, 0.12160389497876167, -2.0, -2.0, -2.0], "value": [[[7.803827754408082e-06]], [[-0.002116746271591641]], [[-0.42706801797156735]], [[0.6196458382605394]], [[1.0979827847106982]]]}, {"children_left": [1, 2, -1, -1, 5, -1, -1], "children_right": [4, 3, -1, -1, 6, -1, -1], "feature": [8, 18, -2, -2, 39, -2, -2], "threshold": [-0.3040792942047119, -0.49997787177562714, -2.0, -2.0, 0.45605291426181793, -2.0, -2.0], "value": [[[1.1023275043316716e-05]], [[0.018228180304639432]], [[1.030726879720245]], [[0.4468250052930563]], [[-0.009748167990811744]], [[-0.622148775869015]], [[0.7553616095658494]]]}]}